-1.141573918554699807e+00
1.442892568800511377e+01
5.717525293701922529e+00
1.692555165894082947e+01
-5.493938077697884559e+00
2.963528779986723372e+00
1.280265738320005653e+01
2.920150248285586225e-01
1.609417175094080577e+01
1.321999520759996383e+00
1.068725130664809164e+01
5.880874670631246914e+00
-1.292000805624208581e+01
-6.461080416124333148e+00
2.509360000229227339e+01
-1.351779187125008086e+01
-1.225794683033370092e+01
-2.299766882590869699e+01
1.416070880668466891e+01
3.148804830948033651e+00
1.560127294925513297e+01
-7.454368645492288614e+00
1.992115364717892945e+01
-1.467976732920859462e+01
2.250889908798248129e+01
5.611869057900192637e+00
-5.816647043272979545e+00
2.835539425135326308e+00
-9.798434698872911852e+00
-1.200558010161496547e+01
-3.525960747515104188e-02
-1.051411841938761071e+01
7.441621831010997390e+00
-2.874959316226539840e+01
1.384937895513809991e+01
-6.091863393396084625e+00
3.326599854822445934e+01
-2.686279630730420642e+00
-2.693605823320117665e+00
-1.995770361800352788e+01
5.663100961319733617e-01
1.628912236351026444e+00
7.394288716796810768e+00
9.186909288608795521e+00
-2.705954487059071933e+00
5.083157185152117563e+00
7.791574075000800903e+00
3.277296735651398762e+01
4.247436064440567094e+00
7.831619557941909449e+00
1.934852295838166425e+00
-2.444751862754108274e+00
-1.540177131367089780e+00
1.271227728430559800e+01
-1.039516111800976539e+01
-2.334261505748888688e+00
-9.379767883201626688e+00
-7.100073057855122549e+00
-4.632437621487260904e-01
1.274720281149486922e+01
4.091990604945755727e+00
1.336764302800781579e+01
-1.359493540636158215e+01
1.462243261526987936e+01
-8.839587341681089949e-01
-2.632389199568953231e+00
7.360408082320318179e+00
-6.617180487060524641e+00
9.907114740519080698e+00
-5.724570835001439484e+00
4.606740174648781938e+00
-1.348295716781427522e+01
8.430026153880410433e+00
1.305521436163748217e-01
-4.859225386312722605e+00
-1.653160859291730134e+01
-9.595701730114377881e+00
1.454984069245927714e+01
-2.565284934031204056e+00
7.647349566074080895e-01
-5.200115311806839280e+00
-1.048063748788152338e+01
5.724478500788533708e+00
2.901042336313912173e+00
-3.053338198700785000e+01
2.024030551357175867e+01
2.545576610421678154e+00
-6.107099175770543731e+00
2.935560593963375986e+00
-1.691884455161883904e+00
-9.770401796881202472e+00
1.680572898597554499e+01
8.420423320553517499e+00
1.029751287564112161e+01
-1.223124282824806919e+01
-3.913601169188021811e-01
2.394810774007182452e+00
1.872967220909270836e+01
6.647451157891619555e-01
-1.021444491005948940e+01
8.240086823502160485e+00
-9.267816051532864918e+00
3.587986214397984597e+00
1.083482151594305387e+00
-1.633562587894117613e+01
-1.562847721117128330e+01
7.608343769601245477e+00
-4.982881262303997083e+00
1.026337153656428924e+01
1.614191121832031228e-01
-1.384168800145297418e+01
7.365328058133744804e+00
-3.043980266421527414e+00
-4.952980278568437922e-01
-5.851986246909337552e+00
1.447857711775976775e+01
-9.595091031381794977e+00
-7.385203363806161825e+00
1.135520101178543406e+01
-2.401026943650164558e+00
8.337793914223995628e+00
1.794109301511326970e+00
-4.179736912819881911e-01
4.140490952232790178e+00
1.623012845966381068e+00
1.189556154787263065e+00
2.184481600629742046e-02
9.053811841994285459e+00
1.659682461665376607e+01
-6.155407900789711562e+00
8.624881581283519338e+00
-2.959637423178245630e+00
1.419422299387250774e+01
-1.231114143432303720e+01
6.772071330582345006e+00
-2.122127080116128273e+00
-1.522705684104237456e+01
-6.756108031098068345e+00
4.350844199545107926e+00
3.656216185621071091e+00
1.723989668665056740e+01
-2.942858896196019480e-01
1.311693851832466251e+01
-9.982184504557828353e-01
-1.456428395412374677e+01
8.774920869510081545e+00
3.303056878125147033e+00
-8.700391729737487978e+00
-1.321489971142119479e+01
-1.643884433996075600e+01
5.607190013438262177e+00
-2.056201593409173611e+01
-9.447880352901565082e-02
-6.125323776197708625e-01
-3.906252068249853604e-01
8.321414857824024125e+00
-1.670341319521138956e+01
-1.106506345474035413e+01
2.771366317145593339e+00
1.080575956779669333e+00
1.823008156750512088e+00
7.280546204303489866e+00
3.915161580008532649e+00
3.390973851011795936e+00
-9.608984197130615579e-01
-8.722515870810671146e+00
7.238963353489256125e-01
3.028949409844996499e+00
-1.171519197413651447e+01
1.155314384839858377e+01
-5.746290381397948899e+00
-3.515939509850741107e+00
1.072149778022419286e-01
-2.192086327661120038e+01
1.785438769956177651e+01
-6.194137051713432207e+00
-1.772712587707858667e+00
-1.937349653764952251e+01
-1.382890976170302189e+01
-3.352993696145676772e+00
-1.974221744761614872e+01
-3.621387409491801268e+00
-1.519612088560384500e+01
6.295279569746202064e+00
-4.889688870656505593e+00
2.084324892224885772e+01
-4.857930591589236791e+00
2.638957955232949004e+01
-2.796808877845752495e+00
-1.428101938731109755e+01
-2.888454779958483098e-01
4.872582440842045060e+00
1.640356029663199422e+01
-2.208481813695237861e+01
7.265312463853872416e+00
-1.389402407041161780e+01
7.676698736409400148e+00
-3.438753609660036403e+00
-4.826825546614094797e+00
-1.174551663103175159e+01
1.172312760860914871e+01
1.535099622997234370e+01
3.594893200866660088e+00
6.967627863306297797e+00
-7.211993794760239718e-01
6.539396215061000106e+00
1.900604534688343783e+00
-5.655473872823042036e+00
5.177825771925752996e+00
-4.116013655419260786e+00
7.669289730785036951e+00
7.305173271073986285e+00
-1.776976357818357277e+00
1.375670506433192219e+00
-2.528357645990313429e+00
1.109882916337675240e+01
6.652834998413360346e+00
5.781019283628730854e+00
-2.569813920389257333e+01
3.797106933969133014e+00
-2.306417650084949145e+00
1.274789549875216998e+01
-3.154175385441917445e+00
-1.287144805243034540e+01
-8.801859866794654152e+00
-1.852396505445703312e+01
-3.485071000919526707e+00
-4.233737375389408975e+00
1.168200086504792168e+01
-3.826590087145132379e+00
3.713058640352338013e+00
-1.330440777986364687e+01
7.146125000379308645e+00
7.252986412805778826e+00
5.859819949330240085e+00
2.637350820621588454e+01
2.079685642126842993e+01
3.492729632520551242e+00
-1.699846865897382431e+00
-2.505582139376973316e+01
9.979006077359033000e+00
-2.177330867325722341e+00
1.260780664547192842e+01
-6.605016770822653704e+00
4.940364310110386015e+00
-2.829674071439362137e+01
9.608125963391481728e-01
-1.017588222794752539e+01
1.644766142468190395e+01
7.281211530988739078e+00
-1.565750474443828111e+01
1.623905287417374055e+01
-1.017169434409210105e+01
2.564720825346380462e-01
2.261428950037598362e+00
-2.046780417733898005e+01
5.163748622787093012e+00
4.437346493417502202e+00
-1.078069844850448789e+01
-9.721738328283848318e+00
1.993504301031032355e+01
-3.311258717223448222e+00
2.918393543969817649e+00
2.009530815584270513e+01
-1.330695528472796596e+00
-2.080987727001584631e+00
-1.122153967122935470e+01
-8.125185322875180916e+00
-2.903402947720113980e-01
2.697973561529782671e+01
-5.833828354178206332e+00
-9.248243208842806595e+00
-1.373027156021321282e+01
3.285145394038032851e+00
6.561004109283480545e+00
5.194223753750061512e+00
7.903147175585089279e+00
9.907909515993509331e+00
1.108585788226788971e+01
-2.742647952935904243e+01
-4.440033187879327770e+00
-3.342706460669123913e+00
-9.463322697159524122e-01
-3.904051860043323607e+00
9.517063468847157814e-01
-5.755891886729173734e+00
-1.182872205194309689e+00
-3.587832794603535547e+00
4.500880475206596287e+00
5.983401971835824895e+00
-4.836162826585132635e+00
3.481784739838215348e+00
4.762964432461593844e+00
-2.423597690450189290e+01
6.857051277939728351e+00
-1.223086593266889466e+01
-9.697185869533686997e+00
2.870735515078914446e+00
1.405742644420250542e+00
9.713980474656329633e+00
-3.279584591832297447e-01
